<?xml version="1.0"?>
<opencv_storage>
<cascade>
  <stageType>BOOST</stageType>
  <featureType>HAAR</featureType>
  <height>32</height>
  <width>20</width>
  <stageParams>
    <boostType>GAB</boostType>
    <minHitRate>9.9500000476837158e-01</minHitRate>
    <maxFalseAlarm>5.0000000000000000e-01</maxFalseAlarm>
    <weightTrimRate>9.4999999999999996e-01</weightTrimRate>
    <maxDepth>1</maxDepth>
    <maxWeakCount>100</maxWeakCount></stageParams>
  <featureParams>
    <maxCatCount>0</maxCatCount>
    <featSize>1</featSize>
    <mode>ALL</mode></featureParams>
  <stageNum>20</stageNum>
  <stages>
    <!-- stage 0 -->
    <_>
      <maxWeakCount>5</maxWeakCount>
      <stageThreshold>-8.2040381431579590e-01</stageThreshold>
      <weakClassifiers>
        <_>
          <internalNodes>
            0 -1 5 6.9192983210086823e-03</internalNodes>
          <leafValues>
            -5.6800001859664917e-01 6.1111110448837280e-01</leafValues></_>
        <_>
          <internalNodes>
            0 -1 172 5.0638139247894287e-02</internalNodes>
          <leafValues>
            -2.9470470547676086e-01 8.0627721548080444e-01</leafValues></_>
        <_>
          <internalNodes>
            0 -1 30 -1.0487143881618977e-02</internalNodes>
          <leafValues>
            6.9557034969329834e-01 -3.0630272626876831e-01</leafValues></_>
        <_>
          <internalNodes>
            0 -1 80 -5.1340065896511078e-02</internalNodes>
          <leafValues>
            6.5640813112258911e-01 -3.3436697721481323e-01</leafValues></_>
        <_>
          <internalNodes>
            0 -1 105 2.7623963542282581e-03</internalNodes>
          <leafValues>
            -3.0780452489852905e-01 7.5228095054626465e-01</leafValues></_></weakClassifiers></_>
    <!-- stage 1 -->
    <_>
      <maxWeakCount>7</maxWeakCount>
      <stageThreshold>-6.5897053480148315e-01</stageThreshold>
      <weakClassifiers>
        <_>
          <internalNodes>
            0 -1 4 4.0826434269547462e-03</internalNodes>
          <leafValues>
            -5.4978352785110474e-01 4.4785276055335999e-01</leafValues></_>
        <_>
          <internalNodes>
            0 -1 29 -2.2971989586949348e-02</internalNodes>
          <leafValues>
            6.0965490341186523e-01 -3.9209023118019104e-01</leafValues></_>
        <_>
          <internalNodes>
            0 -1 36 -2.6045739650726318e-03</internalNodes>
          <leafValues>
            6.6175252199172974e-01 -2.5452747941017151e-01</leafValues></_>
        <_>
          <internalNodes>
            0 -1 16 -6.3287187367677689e-03</internalNodes>
          <leafValues>
            5.5790632963180542e-01 -3.3014431595802307e-01</leafValues></_>
        <_>
          <internalNodes>
            0 -1 145 1.8898377195000648e-02</internalNodes>
          <leafValues>
            -2.6101404428482056e-01 7.5924348831176758e-01</leafValues></_>
        <_>
          <internalNodes>
            0 -1 60 -9.9804047495126724e-03</internalNodes>
          <leafValues>
            6.8748867511749268e-01 -2.6304689049720764e-01</leafValues></_>
        <_>
          <internalNodes>
            0 -1 134 1.7998117953538895e-02</internalNodes>
          <leafValues>
            -3.7326940894126892e-01 5.0358533859252930e-01</leafValues></_></weakClassifiers></_>
    <!-- stage 2 -->
    <_>
      <maxWeakCount>8</maxWeakCount>
      <stageThreshold>-8.6302125453948975e-01</stageThreshold>
      <weakClassifiers>
        <_>
          <internalNodes>
            0 -1 144 -4.5808977447450161e-03</internalNodes>
          <leafValues>
            4.8091602325439453e-01 -4.4486692547798157e-01</leafValues></_>
        <_>
          <internalNodes>
            0 -1 6 4.5961081923451275e-05</internalNodes>
          <leafValues>
            -4.7628268599510193e-01 3.7588039040565491e-01</leafValues></_>
        <_>
          <internalNodes>
            0 -1 83 -8.8843125849962234e-03</internalNodes>
          <leafValues>
            6.0535192489624023e-01 -2.6698461174964905e-01</leafValues></_>
        <_>
          <internalNodes>
            0 -1 171 1.0009033605456352e-02</internalNodes>
          <leafValues>
            -2.8390187025070190e-01 6.1295092105865479e-01</leafValues></_>
        <_>
          <internalNodes>
            0 -1 136 -1.0045475326478481e-02</internalNodes>
          <leafValues>
            6.4688050746917725e-01 -2.3247456550598145e-01</leafValues></_>
        <_>
          <internalNodes>
            0 -1 100 -1.3183650560677052e-02</internalNodes>
          <leafValues>
            7.7070301771163940e-01 -2.0244817435741425e-01</leafValues></_>
        <_>
          <internalNodes>
            0 -1 55 -8.9623697567731142e-04</internalNodes>
          <leafValues>
            4.6677812933921814e-01 -3.3752974867820740e-01</leafValues></_>
        <_>
          <internalNodes>
            0 -1 7 1.0324737988412380e-02</internalNodes>
          <leafValues>
            -3.1969335675239563e-01 6.2364119291305542e-01</leafValues></_></weakClassifiers></_>
    <!-- stage 3 -->
    <_>
      <maxWeakCount>9</maxWeakCount>
      <stageThreshold>-1.0465679168701172e+00</stageThreshold>
      <weakClassifiers>
        <_>
          <internalNodes>
            0 -1 31 4.3406675104051828e-05</internalNodes>
          <leafValues>
            -5.0243902206420898e-01 2.5925925374031067e-01</leafValues></_>
        <_>
          <internalNodes>
            0 -1 44 -4.2925644665956497e-03</internalNodes>
          <leafValues>
            2.6850566267967224e-01 -5.2988958358764648e-01</leafValues></_>
        <_>
          <internalNodes>
            0 -1 159 2.0871246233582497e-03</internalNodes>
          <leafValues>
            -3.2170683145523071e-01 4.8518875241279602e-01</leafValues></_>
        <_>
          <internalNodes>
            0 -1 182 -4.1177656385116279e-05</internalNodes>
          <leafValues>
            4.3742233514785767e-01 -3.9524146914482117e-01</leafValues></_>
        <_>
          <internalNodes>
            0 -1 127 -3.5359077155590057e-03</internalNodes>
          <leafValues>
            5.2819085121154785e-01 -2.9886847734451294e-01</leafValues></_>
        <_>
          <internalNodes>
            0 -1 197 3.2837619073688984e-03</internalNodes>
          <leafValues>
            2.3549693822860718e-01 -7.1771496534347534e-01</leafValues></_>
        <_>
          <internalNodes>
            0 -1 88 -7.9113980755209923e-03</internalNodes>
          <leafValues>
            6.6876524686813354e-01 -2.7152097225189209e-01</leafValues></_>
        <_>
          <internalNodes>
            0 -1 22 -4.5815952122211456e-02</internalNodes>
          <leafValues>
            5.8573871850967407e-01 -2.7321472764015198e-01</leafValues></_>
        <_>
          <internalNodes>
            0 -1 95 -8.5643585771322250e-03</internalNodes>
          <leafValues>
            5.6824743747711182e-01 -3.2024291157722473e-01</leafValues></_></weakClassifiers></_>
    <!-- stage 4 -->
    <_>
      <maxWeakCount>10</maxWeakCount>
      <stageThreshold>-1.2441805601119995e+00</stageThreshold>
      <weakClassifiers>
        <_>
          <internalNodes>
            0 -1 84 -5.8948644436895847e-03</internalNodes>
          <leafValues>
            2.3756906390190125e-01 -4.5539906620979309e-01</leafValues></_>
        <_>
          <internalNodes>
            0 -1 78 -5.1961769349873066e-03</internalNodes>
          <leafValues>
            7.5765025615692139e-01 -1.7707917094230652e-01</leafValues></_>
        <_>
          <internalNodes>
            0 -1 9 -4.1099200025200844e-03</internalNodes>
          <leafValues>
            3.2020092010498047e-01 -4.3945094943046570e-01</leafValues></_>
        <_>
          <internalNodes>
            0 -1 123 -5.1702111959457397e-03</internalNodes>
          <leafValues>
            7.5187206268310547e-01 -1.7473603785037994e-01</leafValues></_>
        <_>
          <internalNodes>
            0 -1 82 -7.3862494900822639e-03</internalNodes>
          <leafValues>
            6.8982988595962524e-01 -1.6200006008148193e-01</leafValues></_>
        <_>
          <internalNodes>
            0 -1 79 3.9646560326218605e-03</internalNodes>
          <leafValues>
            -1.3527935743331909e-01 8.0982142686843872e-01</leafValues></_>
        <_>
          <internalNodes>
            0 -1 94 -1.6279688570648432e-03</internalNodes>
          <leafValues>
            2.1494615077972412e-01 -7.2451335191726685e-01</leafValues></_>
        <_>
          <internalNodes>
            0 -1 160 -3.9063566364347935e-03</internalNodes>
          <leafValues>
            6.5394723415374756e-01 -2.1042291820049286e-01</leafValues></_>
        <_>
          <internalNodes>
            0 -1 164 -6.1677717603743076e-03</internalNodes>
          <leafValues>
            5.1440763473510742e-01 -2.8892964124679565e-01</leafValues></_>
        <_>
          <internalNodes>
            0 -1 119 -3.7385411560535431e-03</internalNodes>
          <leafValues>
            5.6769758462905884e-01 -2.8019970655441284e-01</leafValues></_></weakClassifiers></_>
    <!-- stage 5 -->
    <_>
      <maxWeakCount>9</maxWeakCount>
      <stageThreshold>-7.1611213684082031e-01</stageThreshold>
      <weakClassifiers>
        <_>
          <internalNodes>
            0 -1 153 9.6840672194957733e-03</internalNodes>
          <leafValues>
            -2.8313252329826355e-01 6.4516127109527588e-01</leafValues></_>
        <_>
          <internalNodes>
            0 -1 73 3.4480108879506588e-03</internalNodes>
          <leafValues>
            -2.3117269575595856e-01 4.8798123002052307e-01</leafValues></_>
        <_>
          <internalNodes>
            0 -1 173 -3.1661265529692173e-03</internalNodes>
          <leafValues>
            5.5603879690170288e-01 -2.1813878417015076e-01</leafValues></_>
        <_>
          <internalNodes>
            0 -1 28 1.1444428935647011e-02</internalNodes>
          <leafValues>
            1.9618849456310272e-01 -6.8091166019439697e-01</leafValues></_>
        <_>
          <internalNodes>
            0 -1 23 -8.2303648814558983e-03</internalNodes>
          <leafValues>
            -6.4286887645721436e-01 2.3701278865337372e-01</leafValues></_>
        <_>
          <internalNodes>
            0 -1 133 -1.4560432173311710e-03</internalNodes>
          <leafValues>
            6.1879181861877441e-01 -2.7641636133193970e-01</leafValues></_>
        <_>
          <internalNodes>
            0 -1 103 -4.5949323102831841e-03</internalNodes>
          <leafValues>
            4.7928792238235474e-01 -2.6244133710861206e-01</leafValues></_>
        <_>
          <internalNodes>
            0 -1 18 -3.0095848441123962e-01</internalNodes>
          <leafValues>
            4.7330376505851746e-01 -2.9527765512466431e-01</leafValues></_>
        <_>
          <internalNodes>
            0 -1 49 -5.0701756030321121e-02</internalNodes>
          <leafValues>
            6.9424837827682495e-01 -2.1316307783126831e-01</leafValues></_></weakClassifiers></_>
    <!-- stage 6 -->
    <_>
      <maxWeakCount>10</maxWeakCount>
      <stageThreshold>-1.1039814949035645e+00</stageThreshold>
      <weakClassifiers>
        <_>
          <internalNodes>
            0 -1 154 8.7409829720854759e-03</internalNodes>
          <leafValues>
            -2.9411765933036804e-01 5.7746475934982300e-01</leafValues></_>
        <_>
          <internalNodes>
            0 -1 93 2.2328484337776899e-03</internalNodes>
          <leafValues>
            -3.6321300268173218e-01 3.3901333808898926e-01</leafValues></_>
        <_>
          <internalNodes>
            0 -1 59 -4.3878261931240559e-03</internalNodes>
          <leafValues>
            6.0744106769561768e-01 -2.4304246902465820e-01</leafValues></_>
        <_>
          <internalNodes>
            0 -1 91 -2.7489379048347473e-02</internalNodes>
          <leafValues>
            4.9348354339599609e-01 -2.1418298780918121e-01</leafValues></_>
        <_>
          <internalNodes>
            0 -1 102 1.6609153244644403e-03</internalNodes>
          <leafValues>
            -1.9542455673217773e-01 5.8758467435836792e-01</leafValues></_>
        <_>
          <internalNodes>
            0 -1 12 8.2917064428329468e-02</internalNodes>
          <leafValues>
            -1.6534119844436646e-01 6.3148611783981323e-01</leafValues></_>
        <_>
          <internalNodes>
            0 -1 87 2.7703560888767242e-02</internalNodes>
          <leafValues>
            -2.5507810711860657e-01 5.1019537448883057e-01</leafValues></_>
        <_>
          <internalNodes>
            0 -1 14 3.4139596391469240e-03</internalNodes>
          <leafValues>
            -2.3565915226936340e-01 5.4303842782974243e-01</leafValues></_>
        <_>
          <internalNodes>
            0 -1 33 3.3495586831122637e-04</internalNodes>
          <leafValues>
            -4.4879540801048279e-01 3.0985024571418762e-01</leafValues></_>
        <_>
          <internalNodes>
            0 -1 107 -3.8460478186607361e-02</internalNodes>
          <leafValues>
            4.8378646373748779e-01 -2.6896348595619202e-01</leafValues></_></weakClassifiers></_>
    <!-- stage 7 -->
    <_>
      <maxWeakCount>8</maxWeakCount>
      <stageThreshold>-1.0073002576828003e+00</stageThreshold>
      <weakClassifiers>
        <_>
          <internalNodes>
            0 -1 37 -2.2734029591083527e-01</internalNodes>
          <leafValues>
            4.7826087474822998e-01 -3.9068099856376648e-01</leafValues></_>
        <_>
          <internalNodes>
            0 -1 21 5.1773890852928162e-02</internalNodes>
          <leafValues>
            -2.5684440135955811e-01 6.7864638566970825e-01</leafValues></_>
        <_>
          <internalNodes>
            0 -1 118 -6.8976539187133312e-03</internalNodes>
          <leafValues>
            5.7573133707046509e-01 -1.8164612352848053e-01</leafValues></_>
        <_>
          <internalNodes>
            0 -1 132 -1.6095486283302307e-01</internalNodes>
          <leafValues>
            5.0011849403381348e-01 -2.6907414197921753e-01</leafValues></_>
        <_>
          <internalNodes>
            0 -1 20 -1.0937101393938065e-01</internalNodes>
          <leafValues>
            8.2240104675292969e-01 -1.6057606041431427e-01</leafValues></_>
        <_>
          <internalNodes>
            0 -1 186 4.5523804146796465e-04</internalNodes>
          <leafValues>
            3.1512191891670227e-01 -4.5394742488861084e-01</leafValues></_>
        <_>
          <internalNodes>
            0 -1 108 -1.9814665429294109e-03</internalNodes>
          <leafValues>
            4.5196539163589478e-01 -2.7805355191230774e-01</leafValues></_>
        <_>
          <internalNodes>
            0 -1 32 1.3811589218676090e-02</internalNodes>
          <leafValues>
            2.1432979404926300e-01 -6.0877382755279541e-01</leafValues></_></weakClassifiers></_>
    <!-- stage 8 -->
    <_>
      <maxWeakCount>12</maxWeakCount>
      <stageThreshold>-8.2295554876327515e-01</stageThreshold>
      <weakClassifiers>
        <_>
          <internalNodes>
            0 -1 89 1.3814170379191637e-03</internalNodes>
          <leafValues>
            -2.9936304688453674e-01 5.0000000000000000e-01</leafValues></_>
        <_>
          <internalNodes>
            0 -1 162 -7.1852360852062702e-03</internalNodes>
          <leafValues>
            5.8949631452560425e-01 -1.8114174902439117e-01</leafValues></_>
        <_>
          <internalNodes>
            0 -1 90 1.2118254089727998e-03</internalNodes>
          <leafValues>
            -1.7404074966907501e-01 6.0972785949707031e-01</leafValues></_>
        <_>
          <internalNodes>
            0 -1 77 -2.9995276127010584e-03</internalNodes>
          <leafValues>
            6.2829768657684326e-01 -1.9406266510486603e-01</leafValues></_>
        <_>
          <internalNodes>
            0 -1 111 -1.0108787100762129e-03</internalNodes>
          <leafValues>
            7.8418564796447754e-01 -1.0498335212469101e-01</leafValues></_>
        <_>
          <internalNodes>
            0 -1 151 -1.8100179731845856e-03</internalNodes>
          <leafValues>
            4.4464063644409180e-01 -2.3183903098106384e-01</leafValues></_>
        <_>
          <internalNodes>
            0 -1 193 -2.2949543781578541e-03</internalNodes>
          <leafValues>
            -4.9220719933509827e-01 2.6247936487197876e-01</leafValues></_>
        <_>
          <internalNodes>
            0 -1 189 3.1635895720683038e-04</internalNodes>
          <leafValues>
            -3.6590114235877991e-01 4.2176899313926697e-01</leafValues></_>
        <_>
          <internalNodes>
            0 -1 39 -7.4840383604168892e-04</internalNodes>
          <leafValues>
            4.6958217024803162e-01 -3.0671271681785583e-01</leafValues></_>
        <_>
          <internalNodes>
            0 -1 157 -9.3348871450871229e-04</internalNodes>
          <leafValues>
            6.0801762342453003e-01 -1.9529010355472565e-01</leafValues></_>
        <_>
          <internalNodes>
            0 -1 113 -1.8202412175014615e-03</internalNodes>
          <leafValues>
            4.9263656139373779e-01 -2.7644672989845276e-01</leafValues></_>
        <_>
          <internalNodes>
            0 -1 121 -7.1108195697888732e-04</internalNodes>
          <leafValues>
            5.4625838994979858e-01 -2.5361853837966919e-01</leafValues></_></weakClassifiers></_>
    <!-- stage 9 -->
    <_>
      <maxWeakCount>11</maxWeakCount>
      <stageThreshold>-1.0835080146789551e+00</stageThreshold>
      <weakClassifiers>
        <_>
          <internalNodes>
            0 -1 120 -6.6657010465860367e-03</internalNodes>
          <leafValues>
            7.2727274894714355e-01 -2.4571429193019867e-01</leafValues></_>
        <_>
          <internalNodes>
            0 -1 185 4.6169487759470940e-03</internalNodes>
          <leafValues>
            8.1918194890022278e-02 -8.3610194921493530e-01</leafValues></_>
        <_>
          <internalNodes>
            0 -1 175 2.6215224061161280e-03</internalNodes>
          <leafValues>
            2.2344341874122620e-01 -6.3341283798217773e-01</leafValues></_>
        <_>
          <internalNodes>
            0 -1 150 1.2159027159214020e-02</internalNodes>
          <leafValues>
            -2.5518101453781128e-01 6.5421324968338013e-01</leafValues></_>
        <_>
          <internalNodes>
            0 -1 34 -9.3491584062576294e-02</internalNodes>
          <leafValues>
            -9.1069304943084717e-01 2.0230418443679810e-01</leafValues></_>
        <_>
          <internalNodes>
            0 -1 96 -5.7545327581465244e-03</internalNodes>
          <leafValues>
            5.9646368026733398e-01 -2.2374349832534790e-01</leafValues></_>
        <_>
          <internalNodes>
            0 -1 63 4.7609359025955200e-03</internalNodes>
          <leafValues>
            -1.5029993653297424e-01 8.4869587421417236e-01</leafValues></_>
        <_>
          <internalNodes>
            0 -1 61 -4.6225497499108315e-03</internalNodes>
          <leafValues>
            6.0148698091506958e-01 -2.1000353991985321e-01</leafValues></_>
        <_>
          <internalNodes>
            0 -1 72 5.5508548393845558e-04</internalNodes>
          <leafValues>
            -3.3487096428871155e-01 3.6934563517570496e-01</leafValues></_>
        <_>
          <internalNodes>
            0 -1 10 3.5886883735656738e-02</internalNodes>
          <leafValues>
            2.4372954666614532e-01 -6.1687725782394409e-01</leafValues></_>
        <_>
          <internalNodes>
            0 -1 178 -5.2364630391821265e-05</internalNodes>
          <leafValues>
            2.9030767083168030e-01 -4.1509011387825012e-01</leafValues></_></weakClassifiers></_>
    <!-- stage 10 -->
    <_>
      <maxWeakCount>10</maxWeakCount>
      <stageThreshold>-1.0506217479705811e+00</stageThreshold>
      <weakClassifiers>
        <_>
          <internalNodes>
            0 -1 11 8.1948383012786508e-05</internalNodes>
          <leafValues>
            -5.1136362552642822e-01 1.6513761878013611e-01</leafValues></_>
        <_>
          <internalNodes>
            0 -1 109 1.3849164824932814e-03</internalNodes>
          <leafValues>
            -4.7107475996017456e-01 2.9122704267501831e-01</leafValues></_>
        <_>
          <internalNodes>
            0 -1 52 -4.2274994775652885e-03</internalNodes>
          <leafValues>
            5.8393174409866333e-01 -2.0423375070095062e-01</leafValues></_>
        <_>
          <internalNodes>
            0 -1 1 -2.0591220818459988e-03</internalNodes>
          <leafValues>
            -7.0338445901870728e-01 1.5533256530761719e-01</leafValues></_>
        <_>
          <internalNodes>
            0 -1 124 2.7844223659485579e-03</internalNodes>
          <leafValues>
            -2.0130552351474762e-01 6.8351709842681885e-01</leafValues></_>
        <_>
          <internalNodes>
            0 -1 183 -1.8982354085892439e-03</internalNodes>
          <leafValues>
            -8.3069366216659546e-01 1.8298201262950897e-01</leafValues></_>
        <_>
          <internalNodes>
            0 -1 46 1.7890634480863810e-03</internalNodes>
          <leafValues>
            -3.6662840843200684e-01 3.1136175990104675e-01</leafValues></_>
        <_>
          <internalNodes>
            0 -1 64 -1.4385987073183060e-02</internalNodes>
          <leafValues>
            4.1566044092178345e-01 -2.9988551139831543e-01</leafValues></_>
        <_>
          <internalNodes>
            0 -1 137 7.1737570688128471e-03</internalNodes>
          <leafValues>
            -2.5059971213340759e-01 5.5363178253173828e-01</leafValues></_>
        <_>
          <internalNodes>
            0 -1 48 -2.7256980538368225e-03</internalNodes>
          <leafValues>
            -8.3454054594039917e-01 1.5385314822196960e-01</leafValues></_></weakClassifiers></_>
    <!-- stage 11 -->
    <_>
      <maxWeakCount>11</maxWeakCount>
      <stageThreshold>-8.4258466958999634e-01</stageThreshold>
      <weakClassifiers>
        <_>
          <internalNodes>
            0 -1 58 -4.3634802103042603e-02</internalNodes>
          <leafValues>
            2.8205129504203796e-01 -4.1176471114158630e-01</leafValues></_>
        <_>
          <internalNodes>
            0 -1 3 4.6283602714538574e-03</internalNodes>
          <leafValues>
            1.0179234296083450e-01 -8.9227259159088135e-01</leafValues></_>
        <_>
          <internalNodes>
            0 -1 50 -4.0874952077865601e-01</internalNodes>
          <leafValues>
            6.2771785259246826e-01 -1.5100772678852081e-01</leafValues></_>
        <_>
          <internalNodes>
            0 -1 98 -2.8127981349825859e-02</internalNodes>
          <leafValues>
            6.2642425298690796e-01 -2.5289100408554077e-01</leafValues></_>
        <_>
          <internalNodes>
            0 -1 5 6.9087436422705650e-03</internalNodes>
          <leafValues>
            -2.8297942876815796e-01 3.9390173554420471e-01</leafValues></_>
        <_>
          <internalNodes>
            0 -1 25 -1.4934075996279716e-02</internalNodes>
          <leafValues>
            3.1854057312011719e-01 -3.7027558684349060e-01</leafValues></_>
        <_>
          <internalNodes>
            0 -1 126 -2.3883711546659470e-03</internalNodes>
          <leafValues>
            4.6256569027900696e-01 -2.2790540754795074e-01</leafValues></_>
        <_>
          <internalNodes>
            0 -1 70 -1.2184842489659786e-02</internalNodes>
          <leafValues>
            -7.1090286970138550e-01 1.4995196461677551e-01</leafValues></_>
        <_>
          <internalNodes>
            0 -1 67 -3.9112111553549767e-03</internalNodes>
          <leafValues>
            6.1616313457489014e-01 -1.9254741072654724e-01</leafValues></_>
        <_>
          <internalNodes>
            0 -1 141 -3.6296416074037552e-03</internalNodes>
          <leafValues>
            5.5449867248535156e-01 -2.0670579373836517e-01</leafValues></_>
        <_>
          <internalNodes>
            0 -1 174 2.9259403163450770e-05</internalNodes>
          <leafValues>
            -3.6560419201850891e-01 3.4949338436126709e-01</leafValues></_></weakClassifiers></_>
    <!-- stage 12 -->
    <_>
      <maxWeakCount>11</maxWeakCount>
      <stageThreshold>-1.0746854543685913e+00</stageThreshold>
      <weakClassifiers>
        <_>
          <internalNodes>
            0 -1 75 -8.7762977927923203e-03</internalNodes>
          <leafValues>
            5.0684928894042969e-01 -2.8348910808563232e-01</leafValues></_>
        <_>
          <internalNodes>
            0 -1 97 -2.3757398128509521e-01</internalNodes>
          <leafValues>
            4.9039563536643982e-01 -1.9433175027370453e-01</leafValues></_>
        <_>
          <internalNodes>
            0 -1 44 -4.4997902587056160e-03</internalNodes>
          <leafValues>
            2.4720716476440430e-01 -3.9683485031127930e-01</leafValues></_>
        <_>
          <internalNodes>
            0 -1 81 -4.3456633575260639e-03</internalNodes>
          <leafValues>
            5.9281909465789795e-01 -1.6875499486923218e-01</leafValues></_>
        <_>
          <internalNodes>
            0 -1 62 5.0102500244975090e-03</internalNodes>
          <leafValues>
            1.7729881405830383e-01 -5.8002340793609619e-01</leafValues></_>
        <_>
          <internalNodes>
            0 -1 0 4.2063045839313418e-05</internalNodes>
          <leafValues>
            -4.1258698701858521e-01 2.6092615723609924e-01</leafValues></_>
        <_>
          <internalNodes>
            0 -1 114 -1.7306943191215396e-03</internalNodes>
          <leafValues>
            5.1602160930633545e-01 -1.8562129139900208e-01</leafValues></_>
        <_>
          <internalNodes>
            0 -1 190 -2.1952635142952204e-03</internalNodes>
          <leafValues>
            -6.6948056221008301e-01 1.9034230709075928e-01</leafValues></_>
        <_>
          <internalNodes>
            0 -1 156 -2.4708858691155910e-03</internalNodes>
          <leafValues>
            3.7146198749542236e-01 -3.4319961071014404e-01</leafValues></_>
        <_>
          <internalNodes>
            0 -1 170 -2.7669231712934561e-05</internalNodes>
          <leafValues>
            3.7010380625724792e-01 -3.1690779328346252e-01</leafValues></_>
        <_>
          <internalNodes>
            0 -1 13 -3.6978749558329582e-03</internalNodes>
          <leafValues>
            -5.3950762748718262e-01 1.8588671088218689e-01</leafValues></_></weakClassifiers></_>
    <!-- stage 13 -->
    <_>
      <maxWeakCount>13</maxWeakCount>
      <stageThreshold>-8.9890217781066895e-01</stageThreshold>
      <weakClassifiers>
        <_>
          <internalNodes>
            0 -1 19 -9.1223582625389099e-02</internalNodes>
          <leafValues>
            6.4285713434219360e-01 -2.6627218723297119e-01</leafValues></_>
        <_>
          <internalNodes>
            0 -1 40 -3.6580972373485565e-02</internalNodes>
          <leafValues>
            4.6001046895980835e-01 -2.2673860192298889e-01</leafValues></_>
        <_>
          <internalNodes>
            0 -1 125 -8.1258025020360947e-03</internalNodes>
          <leafValues>
            6.2043237686157227e-01 -1.5175218880176544e-01</leafValues></_>
        <_>
          <internalNodes>
            0 -1 115 4.0747766615822911e-04</internalNodes>
          <leafValues>
            2.7175077795982361e-01 -3.7310788035392761e-01</leafValues></_>
        <_>
          <internalNodes>
            0 -1 27 -6.4430530183017254e-03</internalNodes>
          <leafValues>
            -8.3552277088165283e-01 1.5106263756752014e-01</leafValues></_>
        <_>
          <internalNodes>
            0 -1 112 -6.0940219555050135e-04</internalNodes>
          <leafValues>
            6.2024408578872681e-01 -1.5871478617191315e-01</leafValues></_>
        <_>
          <internalNodes>
            0 -1 69 6.3106097280979156e-02</internalNodes>
          <leafValues>
            1.0749260336160660e-01 -8.6687248945236206e-01</leafValues></_>
        <_>
          <internalNodes>
            0 -1 152 4.5725451782345772e-03</internalNodes>
          <leafValues>
            -1.7863720655441284e-01 7.4927020072937012e-01</leafValues></_>
        <_>
          <internalNodes>
            0 -1 135 -1.6481666825711727e-03</internalNodes>
          <leafValues>
            4.2105168104171753e-01 -2.5014594197273254e-01</leafValues></_>
        <_>
          <internalNodes>
            0 -1 26 -3.2947587897069752e-04</internalNodes>
          <leafValues>
            -4.5865896344184875e-01 2.5862255692481995e-01</leafValues></_>
        <_>
          <internalNodes>
            0 -1 130 -1.2574137654155493e-03</internalNodes>
          <leafValues>
            5.5002629756927490e-01 -1.9271074235439301e-01</leafValues></_>
        <_>
          <internalNodes>
            0 -1 188 -2.2076424211263657e-03</internalNodes>
          <leafValues>
            -8.1134027242660522e-01 1.4273825287818909e-01</leafValues></_>
        <_>
          <internalNodes>
            0 -1 38 -8.7274238467216492e-04</internalNodes>
          <leafValues>
            4.4118958711624146e-01 -2.6509416103363037e-01</leafValues></_></weakClassifiers></_>
    <!-- stage 14 -->
    <_>
      <maxWeakCount>9</maxWeakCount>
      <stageThreshold>-7.4338138103485107e-01</stageThreshold>
      <weakClassifiers>
        <_>
          <internalNodes>
            0 -1 17 -2.8248631954193115e-01</internalNodes>
          <leafValues>
            3.3333334326744080e-01 -3.4306567907333374e-01</leafValues></_>
        <_>
          <internalNodes>
            0 -1 146 4.4582959264516830e-02</internalNodes>
          <leafValues>
            -2.1829371154308319e-01 5.0496709346771240e-01</leafValues></_>
        <_>
          <internalNodes>
            0 -1 176 -1.6087909461930394e-03</internalNodes>
          <leafValues>
            -5.1219314336776733e-01 1.9849421083927155e-01</leafValues></_>
        <_>
          <internalNodes>
            0 -1 57 5.0589715101523325e-05</internalNodes>
          <leafValues>
            -2.9311957955360413e-01 3.2204806804656982e-01</leafValues></_>
        <_>
          <internalNodes>
            0 -1 8 1.0373517870903015e-02</internalNodes>
          <leafValues>
            -2.4504145979881287e-01 4.2942729592323303e-01</leafValues></_>
        <_>
          <internalNodes>
            0 -1 53 -2.3829054087400436e-02</internalNodes>
          <leafValues>
            5.5048173666000366e-01 -2.5011199712753296e-01</leafValues></_>
        <_>
          <internalNodes>
            0 -1 128 1.1540267616510391e-02</internalNodes>
          <leafValues>
            1.6237418353557587e-01 -8.6361867189407349e-01</leafValues></_>
        <_>
          <internalNodes>
            0 -1 42 -1.8327045254409313e-03</internalNodes>
          <leafValues>
            4.9855998158454895e-01 -2.3330715298652649e-01</leafValues></_>
        <_>
          <internalNodes>
            0 -1 68 4.0749302133917809e-03</internalNodes>
          <leafValues>
            2.1311594545841217e-01 -5.1398241519927979e-01</leafValues></_></weakClassifiers></_>
    <!-- stage 15 -->
    <_>
      <maxWeakCount>12</maxWeakCount>
      <stageThreshold>-6.6700142621994019e-01</stageThreshold>
      <weakClassifiers>
        <_>
          <internalNodes>
            0 -1 116 -8.3682715892791748e-02</internalNodes>
          <leafValues>
            7.5000000000000000e-01 -2.3728813230991364e-01</leafValues></_>
        <_>
          <internalNodes>
            0 -1 139 -2.6394226588308811e-03</internalNodes>
          <leafValues>
            5.8325958251953125e-01 -2.2398120164871216e-01</leafValues></_>
        <_>
          <internalNodes>
            0 -1 106 -3.6547668278217316e-03</internalNodes>
          <leafValues>
            6.0886961221694946e-01 -1.1116147786378860e-01</leafValues></_>
        <_>
          <internalNodes>
            0 -1 41 2.4365164339542389e-02</internalNodes>
          <leafValues>
            -1.3363064825534821e-01 7.3188835382461548e-01</leafValues></_>
        <_>
          <internalNodes>
            0 -1 195 -5.3375400602817535e-03</internalNodes>
          <leafValues>
            -6.2051725387573242e-01 2.0625384151935577e-01</leafValues></_>
        <_>
          <internalNodes>
            0 -1 165 -1.5802825801074505e-03</internalNodes>
          <leafValues>
            3.8621062040328979e-01 -2.5243633985519409e-01</leafValues></_>
        <_>
          <internalNodes>
            0 -1 191 -2.6418364723213017e-04</internalNodes>
          <leafValues>
            -5.4203283786773682e-01 2.1990187466144562e-01</leafValues></_>
        <_>
          <internalNodes>
            0 -1 47 -9.4631910324096680e-02</internalNodes>
          <leafValues>
            5.1511180400848389e-01 -1.9919188320636749e-01</leafValues></_>
        <_>
          <internalNodes>
            0 -1 131 -6.3818395137786865e-02</internalNodes>
          <leafValues>
            -9.1500407457351685e-01 1.2189336866140366e-01</leafValues></_>
        <_>
          <internalNodes>
            0 -1 142 1.7978165298700333e-02</internalNodes>
          <leafValues>
            -1.7855179309844971e-01 8.1232118606567383e-01</leafValues></_>
        <_>
          <internalNodes>
            0 -1 192 1.3720032293349504e-03</internalNodes>
          <leafValues>
            -3.0834522843360901e-01 3.6825263500213623e-01</leafValues></_>
        <_>
          <internalNodes>
            0 -1 92 -3.7299052346497774e-03</internalNodes>
          <leafValues>
            6.8637639284133911e-01 -1.6720718145370483e-01</leafValues></_></weakClassifiers></_>
    <!-- stage 16 -->
    <_>
      <maxWeakCount>9</maxWeakCount>
      <stageThreshold>-7.5416302680969238e-01</stageThreshold>
      <weakClassifiers>
        <_>
          <internalNodes>
            0 -1 194 2.5897035375237465e-03</internalNodes>
          <leafValues>
            -3.0030030757188797e-03 -8.6885243654251099e-01</leafValues></_>
        <_>
          <internalNodes>
            0 -1 144 -5.0561996176838875e-03</internalNodes>
          <leafValues>
            3.5246959328651428e-01 -2.7466493844985962e-01</leafValues></_>
        <_>
          <internalNodes>
            0 -1 181 -1.5650023706257343e-03</internalNodes>
          <leafValues>
            -7.5857478380203247e-01 1.6040685772895813e-01</leafValues></_>
        <_>
          <internalNodes>
            0 -1 196 7.6793669722974300e-04</internalNodes>
          <leafValues>
            1.1051197350025177e-01 -7.8623992204666138e-01</leafValues></_>
        <_>
          <internalNodes>
            0 -1 147 4.6393061056733131e-03</internalNodes>
          <leafValues>
            -1.5445405244827271e-01 8.1938630342483521e-01</leafValues></_>
        <_>
          <internalNodes>
            0 -1 101 -6.6887373104691505e-03</internalNodes>
          <leafValues>
            4.9147182703018188e-01 -1.9486191868782043e-01</leafValues></_>
        <_>
          <internalNodes>
            0 -1 24 -6.7326193675398827e-03</internalNodes>
          <leafValues>
            2.8379747271537781e-01 -3.8305306434631348e-01</leafValues></_>
        <_>
          <internalNodes>
            0 -1 158 3.1616374850273132e-02</internalNodes>
          <leafValues>
            -1.6974200308322906e-01 6.7242044210433960e-01</leafValues></_>
        <_>
          <internalNodes>
            0 -1 56 1.2513408437371254e-03</internalNodes>
          <leafValues>
            1.5469716489315033e-01 -7.9786729812622070e-01</leafValues></_></weakClassifiers></_>
    <!-- stage 17 -->
    <_>
      <maxWeakCount>11</maxWeakCount>
      <stageThreshold>-9.3541830778121948e-01</stageThreshold>
      <weakClassifiers>
        <_>
          <internalNodes>
            0 -1 65 -3.3188755623996258e-03</internalNodes>
          <leafValues>
            3.1428572535514832e-01 -3.8582676649093628e-01</leafValues></_>
        <_>
          <internalNodes>
            0 -1 2 3.9746734546497464e-04</internalNodes>
          <leafValues>
            -3.9707049727439880e-01 2.5317883491516113e-01</leafValues></_>
        <_>
          <internalNodes>
            0 -1 86 -9.2632230371236801e-03</internalNodes>
          <leafValues>
            6.0147190093994141e-01 -1.7714564502239227e-01</leafValues></_>
        <_>
          <internalNodes>
            0 -1 129 -4.1796159930527210e-03</internalNodes>
          <leafValues>
            3.2418283820152283e-01 -3.2084956765174866e-01</leafValues></_>
        <_>
          <internalNodes>
            0 -1 167 -1.1043080594390631e-03</internalNodes>
          <leafValues>
            -7.4010312557220459e-01 1.8161569535732269e-01</leafValues></_>
        <_>
          <internalNodes>
            0 -1 35 -1.3742540031671524e-03</internalNodes>
          <leafValues>
            4.8243230581283569e-01 -2.4093286693096161e-01</leafValues></_>
        <_>
          <internalNodes>
            0 -1 51 -4.0826963959261775e-04</internalNodes>
          <leafValues>
            2.9060414433479309e-01 -3.9580160379409790e-01</leafValues></_>
        <_>
          <internalNodes>
            0 -1 85 7.6641282066702843e-04</internalNodes>
          <leafValues>
            -2.1241398155689240e-01 5.1850777864456177e-01</leafValues></_>
        <_>
          <internalNodes>
            0 -1 74 3.1611428130418062e-03</internalNodes>
          <leafValues>
            -1.8601624667644501e-01 5.6983828544616699e-01</leafValues></_>
        <_>
          <internalNodes>
            0 -1 179 -2.6337464078096673e-05</internalNodes>
          <leafValues>
            4.5066589117050171e-01 -2.5744000077247620e-01</leafValues></_>
        <_>
          <internalNodes>
            0 -1 180 -2.5773830711841583e-02</internalNodes>
          <leafValues>
            -9.5674771070480347e-01 9.8107971251010895e-02</leafValues></_></weakClassifiers></_>
    <!-- stage 18 -->
    <_>
      <maxWeakCount>12</maxWeakCount>
      <stageThreshold>-8.0917209386825562e-01</stageThreshold>
      <weakClassifiers>
        <_>
          <internalNodes>
            0 -1 166 -2.9750657267868519e-03</internalNodes>
          <leafValues>
            2.2155688703060150e-01 -4.0088105201721191e-01</leafValues></_>
        <_>
          <internalNodes>
            0 -1 148 1.0927894618362188e-04</internalNodes>
          <leafValues>
            -2.3784047365188599e-01 4.2964929342269897e-01</leafValues></_>
        <_>
          <internalNodes>
            0 -1 140 -5.4638618603348732e-03</internalNodes>
          <leafValues>
            5.8933538198471069e-01 -1.5232416987419128e-01</leafValues></_>
        <_>
          <internalNodes>
            0 -1 45 1.1974049266427755e-03</internalNodes>
          <leafValues>
            -3.1846746802330017e-01 3.0160868167877197e-01</leafValues></_>
        <_>
          <internalNodes>
            0 -1 104 -5.2287796279415488e-05</internalNodes>
          <leafValues>
            3.3868888020515442e-01 -2.8867495059967041e-01</leafValues></_>
        <_>
          <internalNodes>
            0 -1 169 -2.6448643766343594e-03</internalNodes>
          <leafValues>
            -6.6814035177230835e-01 2.0848359167575836e-01</leafValues></_>
        <_>
          <internalNodes>
            0 -1 71 -2.8891384135931730e-03</internalNodes>
          <leafValues>
            4.0160325169563293e-01 -2.9015940427780151e-01</leafValues></_>
        <_>
          <internalNodes>
            0 -1 143 -2.8712596395052969e-04</internalNodes>
          <leafValues>
            3.2813817262649536e-01 -3.1906104087829590e-01</leafValues></_>
        <_>
          <internalNodes>
            0 -1 99 -3.4138388000428677e-03</internalNodes>
          <leafValues>
            5.8811593055725098e-01 -1.9833651185035706e-01</leafValues></_>
        <_>
          <internalNodes>
            0 -1 66 -7.1433498524129391e-03</internalNodes>
          <leafValues>
            -9.7352874279022217e-01 1.5606112778186798e-01</leafValues></_>
        <_>
          <internalNodes>
            0 -1 163 9.6947485581040382e-03</internalNodes>
          <leafValues>
            -2.2544007003307343e-01 6.3465100526809692e-01</leafValues></_>
        <_>
          <internalNodes>
            0 -1 184 -2.5829211808741093e-03</internalNodes>
          <leafValues>
            -9.2348575592041016e-01 1.6776661574840546e-01</leafValues></_></weakClassifiers></_>
    <!-- stage 19 -->
    <_>
      <maxWeakCount>14</maxWeakCount>
      <stageThreshold>-7.6701533794403076e-01</stageThreshold>
      <weakClassifiers>
        <_>
          <internalNodes>
            0 -1 54 -9.0838344767689705e-03</internalNodes>
          <leafValues>
            6.8181818723678589e-01 -2.3999999463558197e-01</leafValues></_>
        <_>
          <internalNodes>
            0 -1 117 7.0875361561775208e-02</internalNodes>
          <leafValues>
            -2.8301909565925598e-01 3.8500884175300598e-01</leafValues></_>
        <_>
          <internalNodes>
            0 -1 187 -4.6860557631589472e-05</internalNodes>
          <leafValues>
            2.9173836112022400e-01 -3.8408005237579346e-01</leafValues></_>
        <_>
          <internalNodes>
            0 -1 149 -7.7950460836291313e-03</internalNodes>
          <leafValues>
            5.6159895658493042e-01 -1.3840828835964203e-01</leafValues></_>
        <_>
          <internalNodes>
            0 -1 76 -7.0419919211417437e-04</internalNodes>
          <leafValues>
            4.1190692782402039e-01 -2.2174493968486786e-01</leafValues></_>
        <_>
          <internalNodes>
            0 -1 43 -1.0728682391345501e-02</internalNodes>
          <leafValues>
            3.9856094121932983e-01 -2.4191430211067200e-01</leafValues></_>
        <_>
          <internalNodes>
            0 -1 138 -2.0739687606692314e-02</internalNodes>
          <leafValues>
            4.4264972209930420e-01 -2.4707409739494324e-01</leafValues></_>
        <_>
          <internalNodes>
            0 -1 110 -8.3045540377497673e-03</internalNodes>
          <leafValues>
            5.3898495435714722e-01 -2.0781096816062927e-01</leafValues></_>
        <_>
          <internalNodes>
            0 -1 122 -2.1913675591349602e-03</internalNodes>
          <leafValues>
            4.6316280961036682e-01 -2.4041071534156799e-01</leafValues></_>
        <_>
          <internalNodes>
            0 -1 161 2.5022849440574646e-03</internalNodes>
          <leafValues>
            -1.6556338965892792e-01 6.0843431949615479e-01</leafValues></_>
        <_>
          <internalNodes>
            0 -1 155 6.6958582028746605e-03</internalNodes>
          <leafValues>
            -1.6545863449573517e-01 6.1790281534194946e-01</leafValues></_>
        <_>
          <internalNodes>
            0 -1 177 2.5950156152248383e-02</internalNodes>
          <leafValues>
            -1.5400770306587219e-01 7.3798066377639771e-01</leafValues></_>
        <_>
          <internalNodes>
            0 -1 168 -2.3912838660180569e-03</internalNodes>
          <leafValues>
            5.1281386613845825e-01 -1.9917970895767212e-01</leafValues></_>
        <_>
          <internalNodes>
            0 -1 15 7.6699331402778625e-03</internalNodes>
          <leafValues>
            1.7171105742454529e-01 -8.3896267414093018e-01</leafValues></_></weakClassifiers></_></stages>
  <features>
    <_>
      <rects>
        <_>
          0 0 2 1 -1.</_>
        <_>
          1 0 1 1 2.</_></rects>
      <tilted>0</tilted></_>
    <_>
      <rects>
        <_>
          0 0 1 4 -1.</_>
        <_>
          0 2 1 2 2.</_></rects>
      <tilted>0</tilted></_>
    <_>
      <rects>
        <_>
          0 0 2 4 -1.</_>
        <_>
          1 0 1 4 2.</_></rects>
      <tilted>0</tilted></_>
    <_>
      <rects>
        <_>
          0 0 2 8 -1.</_>
        <_>
          0 0 1 4 2.</_>
        <_>
          1 4 1 4 2.</_></rects>
      <tilted>0</tilted></_>
    <_>
      <rects>
        <_>
          0 0 6 3 -1.</_>
        <_>
          3 0 3 3 2.</_></rects>
      <tilted>0</tilted></_>
    <_>
      <rects>
        <_>
          0 0 20 1 -1.</_>
        <_>
          5 0 10 1 2.</_></rects>
      <tilted>0</tilted></_>
    <_>
      <rects>
        <_>
          0 1 2 1 -1.</_>
        <_>
          1 1 1 1 2.</_></rects>
      <tilted>0</tilted></_>
    <_>
      <rects>
        <_>
          0 1 4 8 -1.</_>
        <_>
          2 1 2 8 2.</_></rects>
      <tilted>0</tilted></_>
    <_>
      <rects>
        <_>
          0 1 10 26 -1.</_>
        <_>
          5 1 5 26 2.</_></rects>
      <tilted>0</tilted></_>
    <_>
      <rects>
        <_>
          0 1 20 4 -1.</_>
        <_>
          0 3 20 2 2.</_></rects>
      <tilted>0</tilted></_>
    <_>
      <rects>
        <_>
          0 2 19 20 -1.</_>
        <_>
          0 12 19 10 2.</_></rects>
      <tilted>0</tilted></_>
    <_>
      <rects>
        <_>
          0 4 2 3 -1.</_>
        <_>
          1 4 1 3 2.</_></rects>
      <tilted>0</tilted></_>
    <_>
      <rects>
        <_>
          0 6 20 20 -1.</_>
        <_>
          5 6 10 20 2.</_></rects>
      <tilted>0</tilted></_>
    <_>
      <rects>
        <_>
          0 7 1 12 -1.</_>
        <_>
          0 11 1 4 3.</_></rects>
      <tilted>0</tilted></_>
    <_>
      <rects>
        <_>
          0 8 13 4 -1.</_>
        <_>
          0 9 13 2 2.</_></rects>
      <tilted>0</tilted></_>
    <_>
      <rects>
        <_>
          0 9 2 6 -1.</_>
        <_>
          0 11 2 2 3.</_></rects>
      <tilted>0</tilted></_>
    <_>
      <rects>
        <_>
          0 9 9 4 -1.</_>
        <_>
          3 9 3 4 3.</_></rects>
      <tilted>0</tilted></_>
    <_>
      <rects>
        <_>
          0 10 16 22 -1.</_>
        <_>
          0 21 16 11 2.</_></rects>
      <tilted>0</tilted></_>
    <_>
      <rects>
        <_>
          0 10 19 22 -1.</_>
        <_>
          0 21 19 11 2.</_></rects>
      <tilted>0</tilted></_>
    <_>
      <rects>
        <_>
          0 12 20 9 -1.</_>
        <_>
          5 12 10 9 2.</_></rects>
      <tilted>0</tilted></_>
    <_>
      <rects>
        <_>
          0 12 10 15 -1.</_>
        <_>
          5 12 5 15 2.</_></rects>
      <tilted>0</tilted></_>
    <_>
      <rects>
        <_>
          0 12 20 14 -1.</_>
        <_>
          0 19 20 7 2.</_></rects>
      <tilted>0</tilted></_>
    <_>
      <rects>
        <_>
          0 15 17 12 -1.</_>
        <_>
          0 19 17 4 3.</_></rects>
      <tilted>0</tilted></_>
    <_>
      <rects>
        <_>
          0 16 1 14 -1.</_>
        <_>
          0 23 1 7 2.</_></rects>
      <tilted>0</tilted></_>
    <_>
      <rects>
        <_>
          0 16 14 10 -1.</_>
        <_>
          0 16 7 5 2.</_>
        <_>
          7 21 7 5 2.</_></rects>
      <tilted>0</tilted></_>
    <_>
      <rects>
        <_>
          0 16 14 14 -1.</_>
        <_>
          0 16 7 7 2.</_>
        <_>
          7 23 7 7 2.</_></rects>
      <tilted>0</tilted></_>
    <_>
      <rects>
        <_>
          0 18 2 14 -1.</_>
        <_>
          1 18 1 14 2.</_></rects>
      <tilted>0</tilted></_>
    <_>
      <rects>
        <_>
          0 20 1 12 -1.</_>
        <_>
          0 24 1 4 3.</_></rects>
      <tilted>0</tilted></_>
    <_>
      <rects>
        <_>
          0 20 3 12 -1.</_>
        <_>
          0 26 3 6 2.</_></rects>
      <tilted>0</tilted></_>
    <_>
      <rects>
        <_>
          0 22 18 3 -1.</_>
        <_>
          6 22 6 3 3.</_></rects>
      <tilted>0</tilted></_>
    <_>
      <rects>
        <_>
          0 25 20 1 -1.</_>
        <_>
          5 25 10 1 2.</_></rects>
      <tilted>0</tilted></_>
    <_>
      <rects>
        <_>
          1 1 2 1 -1.</_>
        <_>
          2 1 1 1 2.</_></rects>
      <tilted>0</tilted></_>
    <_>
      <rects>
        <_>
          1 1 5 15 -1.</_>
        <_>
          1 6 5 5 3.</_></rects>
      <tilted>0</tilted></_>
    <_>
      <rects>
        <_>
          1 2 2 5 -1.</_>
        <_>
          2 2 1 5 2.</_></rects>
      <tilted>0</tilted></_>
    <_>
      <rects>
        <_>
          1 2 11 12 -1.</_>
        <_>
          1 6 11 4 3.</_></rects>
      <tilted>0</tilted></_>
    <_>
      <rects>
        <_>
          1 8 3 3 -1.</_>
        <_>
          2 8 1 3 3.</_></rects>
      <tilted>0</tilted></_>
    <_>
      <rects>
        <_>
          1 11 3 7 -1.</_>
        <_>
          2 11 1 7 3.</_></rects>
      <tilted>0</tilted></_>
    <_>
      <rects>
        <_>
          1 11 18 18 -1.</_>
        <_>
          1 20 18 9 2.</_></rects>
      <tilted>0</tilted></_>
    <_>
      <rects>
        <_>
          1 12 3 1 -1.</_>
        <_>
          2 13 1 1 3.</_></rects>
      <tilted>1</tilted></_>
    <_>
      <rects>
        <_>
          1 14 3 2 -1.</_>
        <_>
          2 14 1 2 3.</_></rects>
      <tilted>0</tilted></_>
    <_>
      <rects>
        <_>
          1 14 9 8 -1.</_>
        <_>
          1 18 9 4 2.</_></rects>
      <tilted>0</tilted></_>
    <_>
      <rects>
        <_>
          1 16 13 6 -1.</_>
        <_>
          1 18 13 2 3.</_></rects>
      <tilted>0</tilted></_>
    <_>
      <rects>
        <_>
          1 18 4 3 -1.</_>
        <_>
          2 18 2 3 2.</_></rects>
      <tilted>0</tilted></_>
    <_>
      <rects>
        <_>
          1 20 16 6 -1.</_>
        <_>
          1 22 16 2 3.</_></rects>
      <tilted>0</tilted></_>
    <_>
      <rects>
        <_>
          1 26 16 5 -1.</_>
        <_>
          5 26 8 5 2.</_></rects>
      <tilted>0</tilted></_>
    <_>
      <rects>
        <_>
          2 0 4 2 -1.</_>
        <_>
          4 0 2 2 2.</_></rects>
      <tilted>0</tilted></_>
    <_>
      <rects>
        <_>
          2 0 4 3 -1.</_>
        <_>
          4 0 2 3 2.</_></rects>
      <tilted>0</tilted></_>
    <_>
      <rects>
        <_>
          2 0 12 18 -1.</_>
        <_>
          2 6 12 6 3.</_></rects>
      <tilted>0</tilted></_>
    <_>
      <rects>
        <_>
          2 5 2 2 -1.</_>
        <_>
          2 5 2 1 2.</_></rects>
      <tilted>1</tilted></_>
    <_>
      <rects>
        <_>
          2 5 8 23 -1.</_>
        <_>
          4 5 4 23 2.</_></rects>
      <tilted>0</tilted></_>
    <_>
      <rects>
        <_>
          2 5 14 26 -1.</_>
        <_>
          2 18 14 13 2.</_></rects>
      <tilted>0</tilted></_>
    <_>
      <rects>
        <_>
          2 6 2 2 -1.</_>
        <_>
          2 6 1 2 2.</_></rects>
      <tilted>1</tilted></_>
    <_>
      <rects>
        <_>
          2 6 11 3 -1.</_>
        <_>
          2 7 11 1 3.</_></rects>
      <tilted>0</tilted></_>
    <_>
      <rects>
        <_>
          2 7 16 2 -1.</_>
        <_>
          6 11 8 2 2.</_></rects>
      <tilted>1</tilted></_>
    <_>
      <rects>
        <_>
          2 12 2 16 -1.</_>
        <_>
          2 12 1 8 2.</_>
        <_>
          3 20 1 8 2.</_></rects>
      <tilted>0</tilted></_>
    <_>
      <rects>
        <_>
          2 15 3 9 -1.</_>
        <_>
          3 18 1 3 9.</_></rects>
      <tilted>0</tilted></_>
    <_>
      <rects>
        <_>
          2 27 2 4 -1.</_>
        <_>
          2 27 1 2 2.</_>
        <_>
          3 29 1 2 2.</_></rects>
      <tilted>0</tilted></_>
    <_>
      <rects>
        <_>
          2 30 2 2 -1.</_>
        <_>
          2 30 1 1 2.</_>
        <_>
          3 31 1 1 2.</_></rects>
      <tilted>0</tilted></_>
    <_>
      <rects>
        <_>
          3 0 12 16 -1.</_>
        <_>
          3 4 12 8 2.</_></rects>
      <tilted>0</tilted></_>
    <_>
      <rects>
        <_>
          3 11 2 12 -1.</_>
        <_>
          3 11 1 6 2.</_>
        <_>
          4 17 1 6 2.</_></rects>
      <tilted>0</tilted></_>
    <_>
      <rects>
        <_>
          3 12 8 6 -1.</_>
        <_>
          5 12 4 6 2.</_></rects>
      <tilted>0</tilted></_>
    <_>
      <rects>
        <_>
          3 13 3 11 -1.</_>
        <_>
          4 13 1 11 3.</_></rects>
      <tilted>0</tilted></_>
    <_>
      <rects>
        <_>
          3 16 3 6 -1.</_>
        <_>
          4 18 1 2 9.</_></rects>
      <tilted>0</tilted></_>
    <_>
      <rects>
        <_>
          3 18 3 5 -1.</_>
        <_>
          4 18 1 5 3.</_></rects>
      <tilted>0</tilted></_>
    <_>
      <rects>
        <_>
          3 20 11 9 -1.</_>
        <_>
          3 23 11 3 3.</_></rects>
      <tilted>0</tilted></_>
    <_>
      <rects>
        <_>
          3 21 6 4 -1.</_>
        <_>
          5 21 2 4 3.</_></rects>
      <tilted>0</tilted></_>
    <_>
      <rects>
        <_>
          3 23 4 2 -1.</_>
        <_>
          4 24 2 2 2.</_></rects>
      <tilted>1</tilted></_>
    <_>
      <rects>
        <_>
          3 26 11 3 -1.</_>
        <_>
          3 27 11 1 3.</_></rects>
      <tilted>0</tilted></_>
    <_>
      <rects>
        <_>
          3 27 12 4 -1.</_>
        <_>
          7 27 4 4 3.</_></rects>
      <tilted>0</tilted></_>
    <_>
      <rects>
        <_>
          4 0 6 26 -1.</_>
        <_>
          7 0 3 26 2.</_></rects>
      <tilted>0</tilted></_>
    <_>
      <rects>
        <_>
          4 0 12 4 -1.</_>
        <_>
          4 0 6 2 2.</_>
        <_>
          10 2 6 2 2.</_></rects>
      <tilted>0</tilted></_>
    <_>
      <rects>
        <_>
          4 2 3 4 -1.</_>
        <_>
          5 3 1 4 3.</_></rects>
      <tilted>1</tilted></_>
    <_>
      <rects>
        <_>
          4 7 1 8 -1.</_>
        <_>
          4 11 1 4 2.</_></rects>
      <tilted>0</tilted></_>
    <_>
      <rects>
        <_>
          4 12 3 15 -1.</_>
        <_>
          5 12 1 15 3.</_></rects>
      <tilted>0</tilted></_>
    <_>
      <rects>
        <_>
          4 18 2 14 -1.</_>
        <_>
          4 18 1 7 2.</_>
        <_>
          5 25 1 7 2.</_></rects>
      <tilted>0</tilted></_>
    <_>
      <rects>
        <_>
          4 20 6 2 -1.</_>
        <_>
          4 20 6 1 2.</_></rects>
      <tilted>1</tilted></_>
    <_>
      <rects>
        <_>
          5 0 2 2 -1.</_>
        <_>
          5 1 2 1 2.</_></rects>
      <tilted>0</tilted></_>
    <_>
      <rects>
        <_>
          5 3 3 2 -1.</_>
        <_>
          6 4 1 2 3.</_></rects>
      <tilted>1</tilted></_>
    <_>
      <rects>
        <_>
          5 5 3 8 -1.</_>
        <_>
          6 5 1 8 3.</_></rects>
      <tilted>0</tilted></_>
    <_>
      <rects>
        <_>
          5 10 3 3 -1.</_>
        <_>
          6 10 1 3 3.</_></rects>
      <tilted>0</tilted></_>
    <_>
      <rects>
        <_>
          5 10 5 22 -1.</_>
        <_>
          5 21 5 11 2.</_></rects>
      <tilted>0</tilted></_>
    <_>
      <rects>
        <_>
          5 13 2 6 -1.</_>
        <_>
          6 13 1 6 2.</_></rects>
      <tilted>0</tilted></_>
    <_>
      <rects>
        <_>
          5 14 3 16 -1.</_>
        <_>
          6 14 1 16 3.</_></rects>
      <tilted>0</tilted></_>
    <_>
      <rects>
        <_>
          5 18 10 4 -1.</_>
        <_>
          4 19 10 2 2.</_></rects>
      <tilted>1</tilted></_>
    <_>
      <rects>
        <_>
          5 19 5 9 -1.</_>
        <_>
          5 22 5 3 3.</_></rects>
      <tilted>0</tilted></_>
    <_>
      <rects>
        <_>
          5 20 2 6 -1.</_>
        <_>
          5 20 1 3 2.</_>
        <_>
          6 23 1 3 2.</_></rects>
      <tilted>0</tilted></_>
    <_>
      <rects>
        <_>
          5 20 9 3 -1.</_>
        <_>
          4 21 9 1 3.</_></rects>
      <tilted>1</tilted></_>
    <_>
      <rects>
        <_>
          6 0 8 5 -1.</_>
        <_>
          6 0 4 5 2.</_></rects>
      <tilted>1</tilted></_>
    <_>
      <rects>
        <_>
          6 1 3 20 -1.</_>
        <_>
          7 1 1 20 3.</_></rects>
      <tilted>0</tilted></_>
    <_>
      <rects>
        <_>
          6 2 3 2 -1.</_>
        <_>
          7 2 1 2 3.</_></rects>
      <tilted>0</tilted></_>
    <_>
      <rects>
        <_>
          6 10 4 1 -1.</_>
        <_>
          7 10 2 1 2.</_></rects>
      <tilted>0</tilted></_>
    <_>
      <rects>
        <_>
          6 18 8 12 -1.</_>
        <_>
          6 21 8 6 2.</_></rects>
      <tilted>0</tilted></_>
    <_>
      <rects>
        <_>
          6 19 14 2 -1.</_>
        <_>
          6 19 7 1 2.</_>
        <_>
          13 20 7 1 2.</_></rects>
      <tilted>0</tilted></_>
    <_>
      <rects>
        <_>
          7 0 1 6 -1.</_>
        <_>
          7 0 1 3 2.</_></rects>
      <tilted>1</tilted></_>
    <_>
      <rects>
        <_>
          7 1 6 26 -1.</_>
        <_>
          7 14 6 13 2.</_></rects>
      <tilted>0</tilted></_>
    <_>
      <rects>
        <_>
          7 4 3 6 -1.</_>
        <_>
          8 6 1 2 9.</_></rects>
      <tilted>0</tilted></_>
    <_>
      <rects>
        <_>
          7 7 3 5 -1.</_>
        <_>
          8 8 1 5 3.</_></rects>
      <tilted>1</tilted></_>
    <_>
      <rects>
        <_>
          7 10 10 22 -1.</_>
        <_>
          7 21 10 11 2.</_></rects>
      <tilted>0</tilted></_>
    <_>
      <rects>
        <_>
          7 12 6 6 -1.</_>
        <_>
          7 12 6 3 2.</_></rects>
      <tilted>1</tilted></_>
    <_>
      <rects>
        <_>
          7 15 4 4 -1.</_>
        <_>
          7 16 4 2 2.</_></rects>
      <tilted>0</tilted></_>
    <_>
      <rects>
        <_>
          7 15 9 4 -1.</_>
        <_>
          6 16 9 2 2.</_></rects>
      <tilted>1</tilted></_>
    <_>
      <rects>
        <_>
          7 21 3 6 -1.</_>
        <_>
          5 23 3 2 3.</_></rects>
      <tilted>1</tilted></_>
    <_>
      <rects>
        <_>
          8 1 2 4 -1.</_>
        <_>
          8 1 1 2 2.</_>
        <_>
          9 3 1 2 2.</_></rects>
      <tilted>0</tilted></_>
    <_>
      <rects>
        <_>
          8 1 4 4 -1.</_>
        <_>
          8 3 4 2 2.</_></rects>
      <tilted>0</tilted></_>
    <_>
      <rects>
        <_>
          8 2 2 1 -1.</_>
        <_>
          9 2 1 1 2.</_></rects>
      <tilted>0</tilted></_>
    <_>
      <rects>
        <_>
          8 7 8 1 -1.</_>
        <_>
          10 7 4 1 2.</_></rects>
      <tilted>0</tilted></_>
    <_>
      <rects>
        <_>
          8 12 4 4 -1.</_>
        <_>
          8 13 4 2 2.</_></rects>
      <tilted>0</tilted></_>
    <_>
      <rects>
        <_>
          8 12 12 4 -1.</_>
        <_>
          12 16 4 4 3.</_></rects>
      <tilted>1</tilted></_>
    <_>
      <rects>
        <_>
          8 22 3 3 -1.</_>
        <_>
          9 23 1 1 9.</_></rects>
      <tilted>0</tilted></_>
    <_>
      <rects>
        <_>
          8 26 12 1 -1.</_>
        <_>
          14 26 6 1 2.</_></rects>
      <tilted>0</tilted></_>
    <_>
      <rects>
        <_>
          9 0 4 6 -1.</_>
        <_>
          10 1 2 6 2.</_></rects>
      <tilted>1</tilted></_>
    <_>
      <rects>
        <_>
          9 3 2 2 -1.</_>
        <_>
          9 3 1 1 2.</_>
        <_>
          10 4 1 1 2.</_></rects>
      <tilted>0</tilted></_>
    <_>
      <rects>
        <_>
          9 5 2 2 -1.</_>
        <_>
          9 5 1 1 2.</_>
        <_>
          10 6 1 1 2.</_></rects>
      <tilted>0</tilted></_>
    <_>
      <rects>
        <_>
          9 8 3 3 -1.</_>
        <_>
          10 9 1 1 9.</_></rects>
      <tilted>0</tilted></_>
    <_>
      <rects>
        <_>
          9 8 2 4 -1.</_>
        <_>
          9 9 2 2 2.</_></rects>
      <tilted>0</tilted></_>
    <_>
      <rects>
        <_>
          9 8 2 8 -1.</_>
        <_>
          7 10 2 4 2.</_></rects>
      <tilted>1</tilted></_>
    <_>
      <rects>
        <_>
          9 19 5 8 -1.</_>
        <_>
          9 19 5 4 2.</_></rects>
      <tilted>1</tilted></_>
    <_>
      <rects>
        <_>
          10 0 8 32 -1.</_>
        <_>
          10 0 4 16 2.</_>
        <_>
          14 16 4 16 2.</_></rects>
      <tilted>0</tilted></_>
    <_>
      <rects>
        <_>
          10 1 3 22 -1.</_>
        <_>
          11 1 1 22 3.</_></rects>
      <tilted>0</tilted></_>
    <_>
      <rects>
        <_>
          10 6 5 3 -1.</_>
        <_>
          9 7 5 1 3.</_></rects>
      <tilted>1</tilted></_>
    <_>
      <rects>
        <_>
          10 8 3 2 -1.</_>
        <_>
          11 9 1 2 3.</_></rects>
      <tilted>1</tilted></_>
    <_>
      <rects>
        <_>
          10 10 4 1 -1.</_>
        <_>
          11 10 2 1 2.</_></rects>
      <tilted>0</tilted></_>
    <_>
      <rects>
        <_>
          10 13 3 3 -1.</_>
        <_>
          11 14 1 1 9.</_></rects>
      <tilted>0</tilted></_>
    <_>
      <rects>
        <_>
          10 13 3 6 -1.</_>
        <_>
          11 13 1 6 3.</_></rects>
      <tilted>0</tilted></_>
    <_>
      <rects>
        <_>
          10 13 6 2 -1.</_>
        <_>
          10 13 3 1 2.</_>
        <_>
          13 14 3 1 2.</_></rects>
      <tilted>0</tilted></_>
    <_>
      <rects>
        <_>
          10 14 3 5 -1.</_>
        <_>
          11 15 1 5 3.</_></rects>
      <tilted>1</tilted></_>
    <_>
      <rects>
        <_>
          10 19 4 5 -1.</_>
        <_>
          10 19 2 5 2.</_></rects>
      <tilted>1</tilted></_>
    <_>
      <rects>
        <_>
          10 22 4 7 -1.</_>
        <_>
          11 22 2 7 2.</_></rects>
      <tilted>0</tilted></_>
    <_>
      <rects>
        <_>
          11 0 9 1 -1.</_>
        <_>
          14 3 3 1 3.</_></rects>
      <tilted>1</tilted></_>
    <_>
      <rects>
        <_>
          11 0 3 9 -1.</_>
        <_>
          11 3 3 3 3.</_></rects>
      <tilted>0</tilted></_>
    <_>
      <rects>
        <_>
          11 3 2 4 -1.</_>
        <_>
          11 3 1 2 2.</_>
        <_>
          12 5 1 2 2.</_></rects>
      <tilted>0</tilted></_>
    <_>
      <rects>
        <_>
          11 4 4 10 -1.</_>
        <_>
          11 4 4 5 2.</_></rects>
      <tilted>1</tilted></_>
    <_>
      <rects>
        <_>
          11 4 7 28 -1.</_>
        <_>
          11 18 7 14 2.</_></rects>
      <tilted>0</tilted></_>
    <_>
      <rects>
        <_>
          11 7 2 2 -1.</_>
        <_>
          12 7 1 2 2.</_></rects>
      <tilted>0</tilted></_>
    <_>
      <rects>
        <_>
          11 8 8 18 -1.</_>
        <_>
          11 8 4 9 2.</_>
        <_>
          15 17 4 9 2.</_></rects>
      <tilted>0</tilted></_>
    <_>
      <rects>
        <_>
          11 10 3 3 -1.</_>
        <_>
          12 11 1 1 9.</_></rects>
      <tilted>0</tilted></_>
    <_>
      <rects>
        <_>
          11 12 6 10 -1.</_>
        <_>
          13 12 2 10 3.</_></rects>
      <tilted>0</tilted></_>
    <_>
      <rects>
        <_>
          11 12 5 6 -1.</_>
        <_>
          11 14 5 2 3.</_></rects>
      <tilted>0</tilted></_>
    <_>
      <rects>
        <_>
          11 12 6 15 -1.</_>
        <_>
          11 17 6 5 3.</_></rects>
      <tilted>0</tilted></_>
    <_>
      <rects>
        <_>
          11 13 3 3 -1.</_>
        <_>
          12 13 1 3 3.</_></rects>
      <tilted>0</tilted></_>
    <_>
      <rects>
        <_>
          11 13 6 2 -1.</_>
        <_>
          13 13 2 2 3.</_></rects>
      <tilted>0</tilted></_>
    <_>
      <rects>
        <_>
          11 13 2 6 -1.</_>
        <_>
          11 15 2 2 3.</_></rects>
      <tilted>0</tilted></_>
    <_>
      <rects>
        <_>
          11 17 6 6 -1.</_>
        <_>
          11 17 3 3 2.</_>
        <_>
          14 20 3 3 2.</_></rects>
      <tilted>0</tilted></_>
    <_>
      <rects>
        <_>
          11 26 3 3 -1.</_>
        <_>
          10 27 3 1 3.</_></rects>
      <tilted>1</tilted></_>
    <_>
      <rects>
        <_>
          12 0 8 1 -1.</_>
        <_>
          16 0 4 1 2.</_></rects>
      <tilted>0</tilted></_>
    <_>
      <rects>
        <_>
          12 5 8 23 -1.</_>
        <_>
          14 5 4 23 2.</_></rects>
      <tilted>0</tilted></_>
    <_>
      <rects>
        <_>
          12 5 6 21 -1.</_>
        <_>
          15 5 3 21 2.</_></rects>
      <tilted>0</tilted></_>
    <_>
      <rects>
        <_>
          12 8 2 4 -1.</_>
        <_>
          12 9 2 2 2.</_></rects>
      <tilted>0</tilted></_>
    <_>
      <rects>
        <_>
          12 19 7 2 -1.</_>
        <_>
          12 20 7 1 2.</_></rects>
      <tilted>0</tilted></_>
    <_>
      <rects>
        <_>
          12 20 3 9 -1.</_>
        <_>
          13 21 1 9 3.</_></rects>
      <tilted>1</tilted></_>
    <_>
      <rects>
        <_>
          12 23 4 3 -1.</_>
        <_>
          14 23 2 3 2.</_></rects>
      <tilted>0</tilted></_>
    <_>
      <rects>
        <_>
          13 7 3 7 -1.</_>
        <_>
          14 7 1 7 3.</_></rects>
      <tilted>0</tilted></_>
    <_>
      <rects>
        <_>
          13 11 3 3 -1.</_>
        <_>
          14 11 1 3 3.</_></rects>
      <tilted>0</tilted></_>
    <_>
      <rects>
        <_>
          13 11 2 18 -1.</_>
        <_>
          13 11 1 9 2.</_>
        <_>
          14 20 1 9 2.</_></rects>
      <tilted>0</tilted></_>
    <_>
      <rects>
        <_>
          13 12 3 19 -1.</_>
        <_>
          14 12 1 19 3.</_></rects>
      <tilted>0</tilted></_>
    <_>
      <rects>
        <_>
          13 12 4 3 -1.</_>
        <_>
          12 13 4 1 3.</_></rects>
      <tilted>1</tilted></_>
    <_>
      <rects>
        <_>
          13 16 3 14 -1.</_>
        <_>
          14 16 1 14 3.</_></rects>
      <tilted>0</tilted></_>
    <_>
      <rects>
        <_>
          13 25 3 1 -1.</_>
        <_>
          14 25 1 1 3.</_></rects>
      <tilted>0</tilted></_>
    <_>
      <rects>
        <_>
          14 4 6 17 -1.</_>
        <_>
          16 4 2 17 3.</_></rects>
      <tilted>0</tilted></_>
    <_>
      <rects>
        <_>
          14 7 3 3 -1.</_>
        <_>
          13 8 3 1 3.</_></rects>
      <tilted>1</tilted></_>
    <_>
      <rects>
        <_>
          14 8 3 3 -1.</_>
        <_>
          15 9 1 1 9.</_></rects>
      <tilted>0</tilted></_>
    <_>
      <rects>
        <_>
          14 11 2 6 -1.</_>
        <_>
          14 11 1 3 2.</_>
        <_>
          15 14 1 3 2.</_></rects>
      <tilted>0</tilted></_>
    <_>
      <rects>
        <_>
          14 18 3 4 -1.</_>
        <_>
          15 19 1 4 3.</_></rects>
      <tilted>1</tilted></_>
    <_>
      <rects>
        <_>
          14 19 4 8 -1.</_>
        <_>
          15 20 2 8 2.</_></rects>
      <tilted>1</tilted></_>
    <_>
      <rects>
        <_>
          14 21 4 7 -1.</_>
        <_>
          15 22 2 7 2.</_></rects>
      <tilted>1</tilted></_>
    <_>
      <rects>
        <_>
          14 22 6 3 -1.</_>
        <_>
          13 23 6 1 3.</_></rects>
      <tilted>1</tilted></_>
    <_>
      <rects>
        <_>
          15 0 4 3 -1.</_>
        <_>
          17 0 2 3 2.</_></rects>
      <tilted>0</tilted></_>
    <_>
      <rects>
        <_>
          16 0 4 1 -1.</_>
        <_>
          17 0 2 1 2.</_></rects>
      <tilted>0</tilted></_>
    <_>
      <rects>
        <_>
          16 0 2 2 -1.</_>
        <_>
          16 0 2 1 2.</_></rects>
      <tilted>1</tilted></_>
    <_>
      <rects>
        <_>
          16 1 4 1 -1.</_>
        <_>
          17 2 2 1 2.</_></rects>
      <tilted>1</tilted></_>
    <_>
      <rects>
        <_>
          16 2 2 1 -1.</_>
        <_>
          17 2 1 1 2.</_></rects>
      <tilted>0</tilted></_>
    <_>
      <rects>
        <_>
          16 10 4 10 -1.</_>
        <_>
          17 11 2 10 2.</_></rects>
      <tilted>1</tilted></_>
    <_>
      <rects>
        <_>
          16 13 4 10 -1.</_>
        <_>
          16 13 4 5 2.</_></rects>
      <tilted>1</tilted></_>
    <_>
      <rects>
        <_>
          16 16 3 2 -1.</_>
        <_>
          17 17 1 2 3.</_></rects>
      <tilted>1</tilted></_>
    <_>
      <rects>
        <_>
          16 23 4 2 -1.</_>
        <_>
          17 23 2 2 2.</_></rects>
      <tilted>0</tilted></_>
    <_>
      <rects>
        <_>
          16 27 4 2 -1.</_>
        <_>
          18 27 2 2 2.</_></rects>
      <tilted>0</tilted></_>
    <_>
      <rects>
        <_>
          17 0 3 4 -1.</_>
        <_>
          18 0 1 4 3.</_></rects>
      <tilted>0</tilted></_>
    <_>
      <rects>
        <_>
          17 0 3 6 -1.</_>
        <_>
          17 0 3 3 2.</_></rects>
      <tilted>1</tilted></_>
    <_>
      <rects>
        <_>
          17 2 2 1 -1.</_>
        <_>
          18 2 1 1 2.</_></rects>
      <tilted>0</tilted></_>
    <_>
      <rects>
        <_>
          17 9 1 3 -1.</_>
        <_>
          17 10 1 1 3.</_></rects>
      <tilted>0</tilted></_>
    <_>
      <rects>
        <_>
          17 17 3 9 -1.</_>
        <_>
          18 20 1 3 9.</_></rects>
      <tilted>0</tilted></_>
    <_>
      <rects>
        <_>
          17 18 2 3 -1.</_>
        <_>
          17 19 2 1 3.</_></rects>
      <tilted>0</tilted></_>
    <_>
      <rects>
        <_>
          18 0 2 1 -1.</_>
        <_>
          19 0 1 1 2.</_></rects>
      <tilted>0</tilted></_>
    <_>
      <rects>
        <_>
          18 1 2 1 -1.</_>
        <_>
          18 1 1 1 2.</_></rects>
      <tilted>1</tilted></_>
    <_>
      <rects>
        <_>
          18 1 2 2 -1.</_>
        <_>
          19 1 1 2 2.</_></rects>
      <tilted>0</tilted></_>
    <_>
      <rects>
        <_>
          18 4 2 3 -1.</_>
        <_>
          18 4 1 3 2.</_></rects>
      <tilted>1</tilted></_>
    <_>
      <rects>
        <_>
          18 4 2 7 -1.</_>
        <_>
          19 4 1 7 2.</_></rects>
      <tilted>0</tilted></_>
    <_>
      <rects>
        <_>
          18 5 2 5 -1.</_>
        <_>
          19 5 1 5 2.</_></rects>
      <tilted>0</tilted></_>
    <_>
      <rects>
        <_>
          18 17 2 6 -1.</_>
        <_>
          18 17 1 3 2.</_>
        <_>
          19 20 1 3 2.</_></rects>
      <tilted>0</tilted></_>
    <_>
      <rects>
        <_>
          18 18 1 2 -1.</_>
        <_>
          18 18 1 1 2.</_></rects>
      <tilted>1</tilted></_>
    <_>
      <rects>
        <_>
          18 23 1 4 -1.</_>
        <_>
          18 25 1 2 2.</_></rects>
      <tilted>0</tilted></_>
    <_>
      <rects>
        <_>
          18 31 2 1 -1.</_>
        <_>
          19 31 1 1 2.</_></rects>
      <tilted>0</tilted></_>
    <_>
      <rects>
        <_>
          19 0 1 12 -1.</_>
        <_>
          19 6 1 6 2.</_></rects>
      <tilted>0</tilted></_>
    <_>
      <rects>
        <_>
          19 3 1 14 -1.</_>
        <_>
          19 10 1 7 2.</_></rects>
      <tilted>0</tilted></_>
    <_>
      <rects>
        <_>
          19 4 1 4 -1.</_>
        <_>
          19 6 1 2 2.</_></rects>
      <tilted>0</tilted></_>
    <_>
      <rects>
        <_>
          19 17 1 10 -1.</_>
        <_>
          19 22 1 5 2.</_></rects>
      <tilted>0</tilted></_>
    <_>
      <rects>
        <_>
          19 18 1 2 -1.</_>
        <_>
          19 19 1 1 2.</_></rects>
      <tilted>0</tilted></_>
    <_>
      <rects>
        <_>
          19 20 1 12 -1.</_>
        <_>
          19 26 1 6 2.</_></rects>
      <tilted>0</tilted></_></features></cascade>
</opencv_storage>
