<?xml version="1.0"?>
<opencv_storage>
<stage10>
  <maxWeakCount>10</maxWeakCount>
  <stageThreshold>-1.0506217479705811e+00</stageThreshold>
  <weakClassifiers>
    <_>
      <internalNodes>
        0 -1 5972 8.1948383012786508e-05</internalNodes>
      <leafValues>
        -5.1136362552642822e-01 1.6513761878013611e-01</leafValues></_>
    <_>
      <internalNodes>
        0 -1 201663 1.3849164824932814e-03</internalNodes>
      <leafValues>
        -4.7107475996017456e-01 2.9122704267501831e-01</leafValues></_>
    <_>
      <internalNodes>
        0 -1 58628 -4.2274994775652885e-03</internalNodes>
      <leafValues>
        5.8393174409866333e-01 -2.0423375070095062e-01</leafValues></_>
    <_>
      <internalNodes>
        0 -1 9 -2.0591220818459988e-03</internalNodes>
      <leafValues>
        -7.0338445901870728e-01 1.5533256530761719e-01</leafValues></_>
    <_>
      <internalNodes>
        0 -1 230161 2.7844223659485579e-03</internalNodes>
      <leafValues>
        -2.0130552351474762e-01 6.8351709842681885e-01</leafValues></_>
    <_>
      <internalNodes>
        0 -1 309528 -1.8982354085892439e-03</internalNodes>
      <leafValues>
        -8.3069366216659546e-01 1.8298201262950897e-01</leafValues></_>
    <_>
      <internalNodes>
        0 -1 49664 1.7890634480863810e-03</internalNodes>
      <leafValues>
        -3.6662840843200684e-01 3.1136175990104675e-01</leafValues></_>
    <_>
      <internalNodes>
        0 -1 93869 -1.4385987073183060e-02</internalNodes>
      <leafValues>
        4.1566044092178345e-01 -2.9988551139831543e-01</leafValues></_>
    <_>
      <internalNodes>
        0 -1 245510 7.1737570688128471e-03</internalNodes>
      <leafValues>
        -2.5059971213340759e-01 5.5363178253173828e-01</leafValues></_>
    <_>
      <internalNodes>
        0 -1 56553 -2.7256980538368225e-03</internalNodes>
      <leafValues>
        -8.3454054594039917e-01 1.5385314822196960e-01</leafValues></_></weakClassifiers></stage10>
</opencv_storage>
