<?xml version="1.0"?>
<opencv_storage>
<stage14>
  <maxWeakCount>9</maxWeakCount>
  <stageThreshold>-7.4338138103485107e-01</stageThreshold>
  <weakClassifiers>
    <_>
      <internalNodes>
        0 -1 14394 -2.8248631954193115e-01</internalNodes>
      <leafValues>
        3.3333334326744080e-01 -3.4306567907333374e-01</leafValues></_>
    <_>
      <internalNodes>
        0 -1 255530 4.4582959264516830e-02</internalNodes>
      <leafValues>
        -2.1829371154308319e-01 5.0496709346771240e-01</leafValues></_>
    <_>
      <internalNodes>
        0 -1 304448 -1.6087909461930394e-03</internalNodes>
      <leafValues>
        -5.1219314336776733e-01 1.9849421083927155e-01</leafValues></_>
    <_>
      <internalNodes>
        0 -1 73660 5.0589715101523325e-05</internalNodes>
      <leafValues>
        -2.9311957955360413e-01 3.2204806804656982e-01</leafValues></_>
    <_>
      <internalNodes>
        0 -1 2304 1.0373517870903015e-02</internalNodes>
      <leafValues>
        -2.4504145979881287e-01 4.2942729592323303e-01</leafValues></_>
    <_>
      <internalNodes>
        0 -1 59257 -2.3829054087400436e-02</internalNodes>
      <leafValues>
        5.5048173666000366e-01 -2.5011199712753296e-01</leafValues></_>
    <_>
      <internalNodes>
        0 -1 236392 1.1540267616510391e-02</internalNodes>
      <leafValues>
        1.6237418353557587e-01 -8.6361867189407349e-01</leafValues></_>
    <_>
      <internalNodes>
        0 -1 44899 -1.8327045254409313e-03</internalNodes>
      <leafValues>
        4.9855998158454895e-01 -2.3330715298652649e-01</leafValues></_>
    <_>
      <internalNodes>
        0 -1 96197 4.0749302133917809e-03</internalNodes>
      <leafValues>
        2.1311594545841217e-01 -5.1398241519927979e-01</leafValues></_></weakClassifiers></stage14>
</opencv_storage>
