<?xml version="1.0"?>
<opencv_storage>
<stage9>
  <maxWeakCount>5</maxWeakCount>
  <stageThreshold>-3.7258192896842957e-01</stageThreshold>
  <weakClassifiers>
    <_>
      <internalNodes>
        0 -1 248778 -6.3322827219963074e-02</internalNodes>
      <leafValues>
        8.4615385532379150e-01 -5.4491019248962402e-01</leafValues></_>
    <_>
      <internalNodes>
        0 -1 223111 4.3449304997920990e-02</internalNodes>
      <leafValues>
        -4.1745996475219727e-01 8.3396041393280029e-01</leafValues></_>
    <_>
      <internalNodes>
        0 -1 163368 1.5297427307814360e-03</internalNodes>
      <leafValues>
        -5.8308798074722290e-01 5.3456538915634155e-01</leafValues></_>
    <_>
      <internalNodes>
        0 -1 89440 2.9112105257809162e-03</internalNodes>
      <leafValues>
        -4.1664636135101318e-01 6.3870203495025635e-01</leafValues></_>
    <_>
      <internalNodes>
        0 -1 115563 -1.9699078984558582e-03</internalNodes>
      <leafValues>
        5.4677695035934448e-01 -5.8347922563552856e-01</leafValues></_></weakClassifiers></stage9>
</opencv_storage>
