<?xml version="1.0"?>
<opencv_storage>
<stage8>
  <maxWeakCount>5</maxWeakCount>
  <stageThreshold>-7.9362648725509644e-01</stageThreshold>
  <weakClassifiers>
    <_>
      <internalNodes>
        0 -1 414307 -2.2037192247807980e-03</internalNodes>
      <leafValues>
        5.3191488981246948e-01 -6.4383560419082642e-01</leafValues></_>
    <_>
      <internalNodes>
        0 -1 116729 -2.7098665013909340e-02</internalNodes>
      <leafValues>
        5.4394555091857910e-01 -6.3285410404205322e-01</leafValues></_>
    <_>
      <internalNodes>
        0 -1 157551 -1.3062091544270515e-02</internalNodes>
      <leafValues>
        -8.3762103319168091e-01 3.4954312443733215e-01</leafValues></_>
    <_>
      <internalNodes>
        0 -1 405951 -6.1030045617371798e-04</internalNodes>
      <leafValues>
        6.2688475847244263e-01 -5.2148842811584473e-01</leafValues></_>
    <_>
      <internalNodes>
        0 -1 104794 -1.2789981439709663e-02</internalNodes>
      <leafValues>
        6.5500849485397339e-01 -4.6292576193809509e-01</leafValues></_></weakClassifiers></stage8>
</opencv_storage>
